network unknown {
}
variable v0 {
  type discrete [ 2 ] { 0, 1 };
}
variable v1 {
  type discrete [ 2 ] { 0, 1 };
}
variable v2 {
  type discrete [ 2 ] { 0, 1 };
}
variable v3 {
  type discrete [ 2 ] { 0, 1 };
}
variable v4 {
  type discrete [ 2 ] { 0, 1 };
}
variable v5 {
  type discrete [ 2 ] { 0, 1 };
}
variable v6 {
  type discrete [ 2 ] { 0, 1 };
}
variable v7 {
  type discrete [ 2 ] { 0, 1 };
}
variable v8 {
  type discrete [ 2 ] { 0, 1 };
}
variable v9 {
  type discrete [ 2 ] { 0, 1 };
}
variable v10 {
  type discrete [ 2 ] { 0, 1 };
}
variable v11 {
  type discrete [ 2 ] { 0, 1 };
}
variable v12 {
  type discrete [ 2 ] { 0, 1 };
}
variable v13 {
  type discrete [ 2 ] { 0, 1 };
}
variable v14 {
  type discrete [ 2 ] { 0, 1 };
}
variable v15 {
  type discrete [ 2 ] { 0, 1 };
}
variable v16 {
  type discrete [ 2 ] { 0, 1 };
}
variable v17 {
  type discrete [ 2 ] { 0, 1 };
}
variable v18 {
  type discrete [ 2 ] { 0, 1 };
}
variable v19 {
  type discrete [ 2 ] { 0, 1 };
}
variable v20 {
  type discrete [ 2 ] { 0, 1 };
}
variable v21 {
  type discrete [ 2 ] { 0, 1 };
}
variable v22 {
  type discrete [ 2 ] { 0, 1 };
}
variable v23 {
  type discrete [ 2 ] { 0, 1 };
}
variable v24 {
  type discrete [ 2 ] { 0, 1 };
}
variable v25 {
  type discrete [ 2 ] { 0, 1 };
}
variable v26 {
  type discrete [ 2 ] { 0, 1 };
}
variable v27 {
  type discrete [ 2 ] { 0, 1 };
}
variable v28 {
  type discrete [ 2 ] { 0, 1 };
}
variable v29 {
  type discrete [ 2 ] { 0, 1 };
}
variable v30 {
  type discrete [ 2 ] { 0, 1 };
}
variable v31 {
  type discrete [ 2 ] { 0, 1 };
}
variable v32 {
  type discrete [ 2 ] { 0, 1 };
}
variable v33 {
  type discrete [ 2 ] { 0, 1 };
}
variable v34 {
  type discrete [ 2 ] { 0, 1 };
}
variable v35 {
  type discrete [ 2 ] { 0, 1 };
}
variable v36 {
  type discrete [ 2 ] { 0, 1 };
}
variable v37 {
  type discrete [ 2 ] { 0, 1 };
}
variable v38 {
  type discrete [ 2 ] { 0, 1 };
}
variable v39 {
  type discrete [ 2 ] { 0, 1 };
}
variable v40 {
  type discrete [ 2 ] { 0, 1 };
}
variable v41 {
  type discrete [ 2 ] { 0, 1 };
}
variable v42 {
  type discrete [ 2 ] { 0, 1 };
}
variable v43 {
  type discrete [ 2 ] { 0, 1 };
}
variable v44 {
  type discrete [ 2 ] { 0, 1 };
}
variable v45 {
  type discrete [ 2 ] { 0, 1 };
}
variable v46 {
  type discrete [ 2 ] { 0, 1 };
}
variable v47 {
  type discrete [ 2 ] { 0, 1 };
}
variable v48 {
  type discrete [ 2 ] { 0, 1 };
}
variable v49 {
  type discrete [ 2 ] { 0, 1 };
}
variable v50 {
  type discrete [ 2 ] { 0, 1 };
}
variable v51 {
  type discrete [ 2 ] { 0, 1 };
}
variable v52 {
  type discrete [ 2 ] { 0, 1 };
}
variable v53 {
  type discrete [ 2 ] { 0, 1 };
}
variable v54 {
  type discrete [ 2 ] { 0, 1 };
}
variable v55 {
  type discrete [ 2 ] { 0, 1 };
}
variable v56 {
  type discrete [ 2 ] { 0, 1 };
}
variable v57 {
  type discrete [ 2 ] { 0, 1 };
}
variable v58 {
  type discrete [ 2 ] { 0, 1 };
}
variable v59 {
  type discrete [ 2 ] { 0, 1 };
}
variable v60 {
  type discrete [ 2 ] { 0, 1 };
}
variable v61 {
  type discrete [ 2 ] { 0, 1 };
}
variable v62 {
  type discrete [ 2 ] { 0, 1 };
}
variable v63 {
  type discrete [ 2 ] { 0, 1 };
}
variable v64 {
  type discrete [ 2 ] { 0, 1 };
}
variable v65 {
  type discrete [ 2 ] { 0, 1 };
}
variable v66 {
  type discrete [ 2 ] { 0, 1 };
}
variable v67 {
  type discrete [ 2 ] { 0, 1 };
}
variable v68 {
  type discrete [ 2 ] { 0, 1 };
}
variable v69 {
  type discrete [ 2 ] { 0, 1 };
}
variable v70 {
  type discrete [ 2 ] { 0, 1 };
}
variable v71 {
  type discrete [ 2 ] { 0, 1 };
}
variable v72 {
  type discrete [ 2 ] { 0, 1 };
}
variable v73 {
  type discrete [ 2 ] { 0, 1 };
}
variable v74 {
  type discrete [ 2 ] { 0, 1 };
}
variable v75 {
  type discrete [ 2 ] { 0, 1 };
}
probability ( v0 ) {
  table 0.995, 0.005;
}
probability ( v1 ) {
  table 0.995, 0.005;
}
probability ( v2 | v0, v1 ) {
  (0, 0) 0.9999, 0.0001;
  (1, 0) 0.0, 1.0;
  (0, 1) 0.0, 1.0;
  (1, 1) 0.5, 0.5;
}
probability ( v3 ) {
  table 0.97, 0.03;
}
probability ( v4 ) {
  table 0.95, 0.05;
}
probability ( v5 ) {
  table 0.9, 0.1;
}
probability ( v6 ) {
  table 0.98, 0.02;
}
probability ( v7 ) {
  table 0.8, 0.2;
}
probability ( v8 ) {
  table 0.9, 0.1;
}
probability ( v9 ) {
  table 0.9999, 0.0001;
}
probability ( v10 | v2, v3, v9 ) {
  (0, 0, 0) 0.99, 0.01;
  (1, 0, 0) 0.1, 0.9;
  (0, 1, 0) 0.0, 1.0;
  (1, 1, 0) 0.5, 0.5;
  (0, 0, 1) 0.05, 0.95;
  (1, 0, 1) 0.5, 0.5;
  (0, 1, 1) 0.5, 0.5;
  (1, 1, 1) 0.5, 0.5;
}
probability ( v11 | v2, v4, v10 ) {
  (0, 0, 0) 1.0, 0.0;
  (1, 0, 0) 0.0, 1.0;
  (0, 1, 0) 1.0, 0.0;
  (1, 1, 0) 0.0, 1.0;
  (0, 0, 1) 0.0, 1.0;
  (1, 0, 1) 0.0, 1.0;
  (0, 1, 1) 1.0, 0.0;
  (1, 1, 1) 0.0, 1.0;
}
probability ( v12 ) {
  table 0.99, 0.01;
}
probability ( v13 ) {
  table 0.99, 0.01;
}
probability ( v14 | v8, v11, v12, v13 ) {
  (0, 0, 0, 0) 0.99, 0.01;
  (1, 0, 0, 0) 0.1, 0.9;
  (0, 1, 0, 0) 0.1, 0.9;
  (1, 1, 0, 0) 0.5, 0.5;
  (0, 0, 1, 0) 0.9, 0.1;
  (1, 0, 1, 0) 0.5, 0.5;
  (0, 1, 1, 0) 0.5, 0.5;
  (1, 1, 1, 0) 0.5, 0.5;
  (0, 0, 0, 1) 0.2, 0.8;
  (1, 0, 0, 1) 0.5, 0.5;
  (0, 1, 0, 1) 0.5, 0.5;
  (1, 1, 0, 1) 0.5, 0.5;
  (0, 0, 1, 1) 0.5, 0.5;
  (1, 0, 1, 1) 0.5, 0.5;
  (0, 1, 1, 1) 0.5, 0.5;
  (1, 1, 1, 1) 0.5, 0.5;
}
probability ( v15 ) {
  table 0.99, 0.01;
}
probability ( v16 | v14, v15 ) {
  (0, 0) 0.99, 0.01;
  (1, 0) 0.0, 1.0;
  (0, 1) 0.0, 1.0;
  (1, 1) 0.5, 0.5;
}
probability ( v17 ) {
  table 0.97, 0.03;
}
probability ( v18 ) {
  table 0.98, 0.02;
}
probability ( v19 ) {
  table 0.7, 0.3;
}
probability ( v20 | v17, v18, v19 ) {
  (0, 0, 0) 0.99, 0.01;
  (1, 0, 0) 0.0, 1.0;
  (0, 1, 0) 0.1, 0.9;
  (1, 1, 0) 0.5, 0.5;
  (0, 0, 1) 0.0, 1.0;
  (1, 0, 1) 0.5, 0.5;
  (0, 1, 1) 0.5, 0.5;
  (1, 1, 1) 0.5, 0.5;
}
probability ( v21 ) {
  table 0.98, 0.02;
}
probability ( v22 ) {
  table 0.99, 0.01;
}
probability ( v23 ) {
  table 0.99, 0.01;
}
probability ( v24 | v21, v22, v23 ) {
  (0, 0, 0) 0.999, 0.001;
  (1, 0, 0) 0.0, 1.0;
  (0, 1, 0) 0.0, 1.0;
  (1, 1, 0) 0.5, 0.5;
  (0, 0, 1) 0.01, 0.99;
  (1, 0, 1) 0.5, 0.5;
  (0, 1, 1) 0.5, 0.5;
  (1, 1, 1) 0.5, 0.5;
}
probability ( v25 ) {
  table 0.15, 0.85;
}
probability ( v26 ) {
  table 0.8, 0.2;
}
probability ( v27 | v2, v17, v26, v18, v19 ) {
  (0, 0, 0, 0, 0) 0.99, 0.01;
  (1, 0, 0, 0, 0) 0.2, 0.8;
  (0, 1, 0, 0, 0) 0.0, 1.0;
  (1, 1, 0, 0, 0) 0.5, 0.5;
  (0, 0, 1, 0, 0) 0.0, 1.0;
  (1, 0, 1, 0, 0) 0.5, 0.5;
  (0, 1, 1, 0, 0) 0.5, 0.5;
  (1, 1, 1, 0, 0) 0.5, 0.5;
  (0, 0, 0, 1, 0) 0.1, 0.9;
  (1, 0, 0, 1, 0) 0.5, 0.5;
  (0, 1, 0, 1, 0) 0.5, 0.5;
  (1, 1, 0, 1, 0) 0.5, 0.5;
  (0, 0, 1, 1, 0) 0.5, 0.5;
  (1, 0, 1, 1, 0) 0.5, 0.5;
  (0, 1, 1, 1, 0) 0.5, 0.5;
  (1, 1, 1, 1, 0) 0.5, 0.5;
  (0, 0, 0, 0, 1) 0.0, 1.0;
  (1, 0, 0, 0, 1) 0.5, 0.5;
  (0, 1, 0, 0, 1) 0.5, 0.5;
  (1, 1, 0, 0, 1) 0.5, 0.5;
  (0, 0, 1, 0, 1) 0.5, 0.5;
  (1, 0, 1, 0, 1) 0.5, 0.5;
  (0, 1, 1, 0, 1) 0.5, 0.5;
  (1, 1, 1, 0, 1) 0.5, 0.5;
  (0, 0, 0, 1, 1) 0.5, 0.5;
  (1, 0, 0, 1, 1) 0.5, 0.5;
  (0, 1, 0, 1, 1) 0.5, 0.5;
  (1, 1, 0, 1, 1) 0.5, 0.5;
  (0, 0, 1, 1, 1) 0.5, 0.5;
  (1, 0, 1, 1, 1) 0.5, 0.5;
  (0, 1, 1, 1, 1) 0.5, 0.5;
  (1, 1, 1, 1, 1) 0.5, 0.5;
}
probability ( v28 | v2, v21, v22, v23 ) {
  (0, 0, 0, 0) 1.0, 0.0;
  (1, 0, 0, 0) 0.1, 0.9;
  (0, 1, 0, 0) 0.0, 1.0;
  (1, 1, 0, 0) 0.5, 0.5;
  (0, 0, 1, 0) 0.0, 1.0;
  (1, 0, 1, 0) 0.5, 0.5;
  (0, 1, 1, 0) 0.5, 0.5;
  (1, 1, 1, 0) 0.5, 0.5;
  (0, 0, 0, 1) 0.1, 0.9;
  (1, 0, 0, 1) 0.5, 0.5;
  (0, 1, 0, 1) 0.5, 0.5;
  (1, 1, 0, 1) 0.5, 0.5;
  (0, 0, 1, 1) 0.5, 0.5;
  (1, 0, 1, 1) 0.5, 0.5;
  (0, 1, 1, 1) 0.5, 0.5;
  (1, 1, 1, 1) 0.5, 0.5;
}
probability ( v29 | v7, v16, v20, v24, v25, v27, v28 ) {
  (0, 0, 0, 0, 0, 0, 0) 1.0, 0.0;
  (1, 0, 0, 0, 0, 0, 0) 1.0, 0.0;
  (0, 1, 0, 0, 0, 0, 0) 1.0, 0.0;
  (1, 1, 0, 0, 0, 0, 0) 1.0, 0.0;
  (0, 0, 1, 0, 0, 0, 0) 1.0, 0.0;
  (1, 0, 1, 0, 0, 0, 0) 1.0, 0.0;
  (0, 1, 1, 0, 0, 0, 0) 1.0, 0.0;
  (1, 1, 1, 0, 0, 0, 0) 1.0, 0.0;
  (0, 0, 0, 1, 0, 0, 0) 1.0, 0.0;
  (1, 0, 0, 1, 0, 0, 0) 1.0, 0.0;
  (0, 1, 0, 1, 0, 0, 0) 1.0, 0.0;
  (1, 1, 0, 1, 0, 0, 0) 1.0, 0.0;
  (0, 0, 1, 1, 0, 0, 0) 1.0, 0.0;
  (1, 0, 1, 1, 0, 0, 0) 1.0, 0.0;
  (0, 1, 1, 1, 0, 0, 0) 1.0, 0.0;
  (1, 1, 1, 1, 0, 0, 0) 1.0, 0.0;
  (0, 0, 0, 0, 1, 0, 0) 1.0, 0.0;
  (1, 0, 0, 0, 1, 0, 0) 1.0, 0.0;
  (0, 1, 0, 0, 1, 0, 0) 0.0, 1.0;
  (1, 1, 0, 0, 1, 0, 0) 0.0, 1.0;
  (0, 0, 1, 0, 1, 0, 0) 1.0, 0.0;
  (1, 0, 1, 0, 1, 0, 0) 0.0, 1.0;
  (0, 1, 1, 0, 1, 0, 0) 0.0, 1.0;
  (1, 1, 1, 0, 1, 0, 0) 0.0, 1.0;
  (0, 0, 0, 1, 1, 0, 0) 0.0, 1.0;
  (1, 0, 0, 1, 1, 0, 0) 1.0, 0.0;
  (0, 1, 0, 1, 1, 0, 0) 0.0, 1.0;
  (1, 1, 0, 1, 1, 0, 0) 0.0, 1.0;
  (0, 0, 1, 1, 1, 0, 0) 0.0, 1.0;
  (1, 0, 1, 1, 1, 0, 0) 0.0, 1.0;
  (0, 1, 1, 1, 1, 0, 0) 0.0, 1.0;
  (1, 1, 1, 1, 1, 0, 0) 0.0, 1.0;
  (0, 0, 0, 0, 0, 1, 0) 1.0, 0.0;
  (1, 0, 0, 0, 0, 1, 0) 0.0, 1.0;
  (0, 1, 0, 0, 0, 1, 0) 1.0, 0.0;
  (1, 1, 0, 0, 0, 1, 0) 0.0, 1.0;
  (0, 0, 1, 0, 0, 1, 0) 1.0, 0.0;
  (1, 0, 1, 0, 0, 1, 0) 0.0, 1.0;
  (0, 1, 1, 0, 0, 1, 0) 1.0, 0.0;
  (1, 1, 1, 0, 0, 1, 0) 0.0, 1.0;
  (0, 0, 0, 1, 0, 1, 0) 1.0, 0.0;
  (1, 0, 0, 1, 0, 1, 0) 0.0, 1.0;
  (0, 1, 0, 1, 0, 1, 0) 1.0, 0.0;
  (1, 1, 0, 1, 0, 1, 0) 0.0, 1.0;
  (0, 0, 1, 1, 0, 1, 0) 1.0, 0.0;
  (1, 0, 1, 1, 0, 1, 0) 0.0, 1.0;
  (0, 1, 1, 1, 0, 1, 0) 1.0, 0.0;
  (1, 1, 1, 1, 0, 1, 0) 0.0, 1.0;
  (0, 0, 0, 0, 1, 1, 0) 1.0, 0.0;
  (1, 0, 0, 0, 1, 1, 0) 1.0, 0.0;
  (0, 1, 0, 0, 1, 1, 0) 0.0, 1.0;
  (1, 1, 0, 0, 1, 1, 0) 0.0, 1.0;
  (0, 0, 1, 0, 1, 1, 0) 1.0, 0.0;
  (1, 0, 1, 0, 1, 1, 0) 0.0, 1.0;
  (0, 1, 1, 0, 1, 1, 0) 0.0, 1.0;
  (1, 1, 1, 0, 1, 1, 0) 0.0, 1.0;
  (0, 0, 0, 1, 1, 1, 0) 0.0, 1.0;
  (1, 0, 0, 1, 1, 1, 0) 1.0, 0.0;
  (0, 1, 0, 1, 1, 1, 0) 0.0, 1.0;
  (1, 1, 0, 1, 1, 1, 0) 0.0, 1.0;
  (0, 0, 1, 1, 1, 1, 0) 0.0, 1.0;
  (1, 0, 1, 1, 1, 1, 0) 0.0, 1.0;
  (0, 1, 1, 1, 1, 1, 0) 0.0, 1.0;
  (1, 1, 1, 1, 1, 1, 0) 0.0, 1.0;
  (0, 0, 0, 0, 0, 0, 1) 0.0, 1.0;
  (1, 0, 0, 0, 0, 0, 1) 1.0, 0.0;
  (0, 1, 0, 0, 0, 0, 1) 0.0, 1.0;
  (1, 1, 0, 0, 0, 0, 1) 1.0, 0.0;
  (0, 0, 1, 0, 0, 0, 1) 0.0, 1.0;
  (1, 0, 1, 0, 0, 0, 1) 1.0, 0.0;
  (0, 1, 1, 0, 0, 0, 1) 0.0, 1.0;
  (1, 1, 1, 0, 0, 0, 1) 1.0, 0.0;
  (0, 0, 0, 1, 0, 0, 1) 0.0, 1.0;
  (1, 0, 0, 1, 0, 0, 1) 1.0, 0.0;
  (0, 1, 0, 1, 0, 0, 1) 0.0, 1.0;
  (1, 1, 0, 1, 0, 0, 1) 1.0, 0.0;
  (0, 0, 1, 1, 0, 0, 1) 0.0, 1.0;
  (1, 0, 1, 1, 0, 0, 1) 1.0, 0.0;
  (0, 1, 1, 1, 0, 0, 1) 0.0, 1.0;
  (1, 1, 1, 1, 0, 0, 1) 1.0, 0.0;
  (0, 0, 0, 0, 1, 0, 1) 1.0, 0.0;
  (1, 0, 0, 0, 1, 0, 1) 1.0, 0.0;
  (0, 1, 0, 0, 1, 0, 1) 0.0, 1.0;
  (1, 1, 0, 0, 1, 0, 1) 0.0, 1.0;
  (0, 0, 1, 0, 1, 0, 1) 1.0, 0.0;
  (1, 0, 1, 0, 1, 0, 1) 0.0, 1.0;
  (0, 1, 1, 0, 1, 0, 1) 0.0, 1.0;
  (1, 1, 1, 0, 1, 0, 1) 0.0, 1.0;
  (0, 0, 0, 1, 1, 0, 1) 0.0, 1.0;
  (1, 0, 0, 1, 1, 0, 1) 1.0, 0.0;
  (0, 1, 0, 1, 1, 0, 1) 0.0, 1.0;
  (1, 1, 0, 1, 1, 0, 1) 0.0, 1.0;
  (0, 0, 1, 1, 1, 0, 1) 0.0, 1.0;
  (1, 0, 1, 1, 1, 0, 1) 0.0, 1.0;
  (0, 1, 1, 1, 1, 0, 1) 0.0, 1.0;
  (1, 1, 1, 1, 1, 0, 1) 0.0, 1.0;
  (0, 0, 0, 0, 0, 1, 1) 0.0, 1.0;
  (1, 0, 0, 0, 0, 1, 1) 0.0, 1.0;
  (0, 1, 0, 0, 0, 1, 1) 0.0, 1.0;
  (1, 1, 0, 0, 0, 1, 1) 0.0, 1.0;
  (0, 0, 1, 0, 0, 1, 1) 0.0, 1.0;
  (1, 0, 1, 0, 0, 1, 1) 0.0, 1.0;
  (0, 1, 1, 0, 0, 1, 1) 0.0, 1.0;
  (1, 1, 1, 0, 0, 1, 1) 0.0, 1.0;
  (0, 0, 0, 1, 0, 1, 1) 0.0, 1.0;
  (1, 0, 0, 1, 0, 1, 1) 0.0, 1.0;
  (0, 1, 0, 1, 0, 1, 1) 0.0, 1.0;
  (1, 1, 0, 1, 0, 1, 1) 0.0, 1.0;
  (0, 0, 1, 1, 0, 1, 1) 0.0, 1.0;
  (1, 0, 1, 1, 0, 1, 1) 0.0, 1.0;
  (0, 1, 1, 1, 0, 1, 1) 0.0, 1.0;
  (1, 1, 1, 1, 0, 1, 1) 0.0, 1.0;
  (0, 0, 0, 0, 1, 1, 1) 1.0, 0.0;
  (1, 0, 0, 0, 1, 1, 1) 1.0, 0.0;
  (0, 1, 0, 0, 1, 1, 1) 0.0, 1.0;
  (1, 1, 0, 0, 1, 1, 1) 0.0, 1.0;
  (0, 0, 1, 0, 1, 1, 1) 1.0, 0.0;
  (1, 0, 1, 0, 1, 1, 1) 0.0, 1.0;
  (0, 1, 1, 0, 1, 1, 1) 0.0, 1.0;
  (1, 1, 1, 0, 1, 1, 1) 0.0, 1.0;
  (0, 0, 0, 1, 1, 1, 1) 0.0, 1.0;
  (1, 0, 0, 1, 1, 1, 1) 1.0, 0.0;
  (0, 1, 0, 1, 1, 1, 1) 0.0, 1.0;
  (1, 1, 0, 1, 1, 1, 1) 0.0, 1.0;
  (0, 0, 1, 1, 1, 1, 1) 0.0, 1.0;
  (1, 0, 1, 1, 1, 1, 1) 0.0, 1.0;
  (0, 1, 1, 1, 1, 1, 1) 0.0, 1.0;
  (1, 1, 1, 1, 1, 1, 1) 0.0, 1.0;
}
probability ( v30 ) {
  table 0.95, 0.05;
}
probability ( v31 ) {
  table 0.94, 0.06;
}
probability ( v32 ) {
  table 0.85, 0.15;
}
probability ( v33 ) {
  table 0.995, 0.005;
}
probability ( v34 | v5, v6, v29, v30, v31, v32, v33 ) {
  (0, 0, 0, 0, 0, 0, 0) 0.99, 0.01;
  (1, 0, 0, 0, 0, 0, 0) 0.0, 1.0;
  (0, 1, 0, 0, 0, 0, 0) 0.0, 1.0;
  (1, 1, 0, 0, 0, 0, 0) 0.5, 0.5;
  (0, 0, 1, 0, 0, 0, 0) 0.0, 1.0;
  (1, 0, 1, 0, 0, 0, 0) 0.5, 0.5;
  (0, 1, 1, 0, 0, 0, 0) 0.5, 0.5;
  (1, 1, 1, 0, 0, 0, 0) 0.5, 0.5;
  (0, 0, 0, 1, 0, 0, 0) 0.1, 0.9;
  (1, 0, 0, 1, 0, 0, 0) 0.5, 0.5;
  (0, 1, 0, 1, 0, 0, 0) 0.5, 0.5;
  (1, 1, 0, 1, 0, 0, 0) 0.5, 0.5;
  (0, 0, 1, 1, 0, 0, 0) 0.5, 0.5;
  (1, 0, 1, 1, 0, 0, 0) 0.5, 0.5;
  (0, 1, 1, 1, 0, 0, 0) 0.5, 0.5;
  (1, 1, 1, 1, 0, 0, 0) 0.5, 0.5;
  (0, 0, 0, 0, 1, 0, 0) 0.0, 1.0;
  (1, 0, 0, 0, 1, 0, 0) 0.5, 0.5;
  (0, 1, 0, 0, 1, 0, 0) 0.5, 0.5;
  (1, 1, 0, 0, 1, 0, 0) 0.5, 0.5;
  (0, 0, 1, 0, 1, 0, 0) 0.5, 0.5;
  (1, 0, 1, 0, 1, 0, 0) 0.5, 0.5;
  (0, 1, 1, 0, 1, 0, 0) 0.5, 0.5;
  (1, 1, 1, 0, 1, 0, 0) 0.5, 0.5;
  (0, 0, 0, 1, 1, 0, 0) 0.5, 0.5;
  (1, 0, 0, 1, 1, 0, 0) 0.5, 0.5;
  (0, 1, 0, 1, 1, 0, 0) 0.5, 0.5;
  (1, 1, 0, 1, 1, 0, 0) 0.5, 0.5;
  (0, 0, 1, 1, 1, 0, 0) 0.5, 0.5;
  (1, 0, 1, 1, 1, 0, 0) 0.5, 0.5;
  (0, 1, 1, 1, 1, 0, 0) 0.5, 0.5;
  (1, 1, 1, 1, 1, 0, 0) 0.5, 0.5;
  (0, 0, 0, 0, 0, 1, 0) 0.02, 0.98;
  (1, 0, 0, 0, 0, 1, 0) 0.5, 0.5;
  (0, 1, 0, 0, 0, 1, 0) 0.5, 0.5;
  (1, 1, 0, 0, 0, 1, 0) 0.5, 0.5;
  (0, 0, 1, 0, 0, 1, 0) 0.5, 0.5;
  (1, 0, 1, 0, 0, 1, 0) 0.5, 0.5;
  (0, 1, 1, 0, 0, 1, 0) 0.5, 0.5;
  (1, 1, 1, 0, 0, 1, 0) 0.5, 0.5;
  (0, 0, 0, 1, 0, 1, 0) 0.5, 0.5;
  (1, 0, 0, 1, 0, 1, 0) 0.5, 0.5;
  (0, 1, 0, 1, 0, 1, 0) 0.5, 0.5;
  (1, 1, 0, 1, 0, 1, 0) 0.5, 0.5;
  (0, 0, 1, 1, 0, 1, 0) 0.5, 0.5;
  (1, 0, 1, 1, 0, 1, 0) 0.5, 0.5;
  (0, 1, 1, 1, 0, 1, 0) 0.5, 0.5;
  (1, 1, 1, 1, 0, 1, 0) 0.5, 0.5;
  (0, 0, 0, 0, 1, 1, 0) 0.5, 0.5;
  (1, 0, 0, 0, 1, 1, 0) 0.5, 0.5;
  (0, 1, 0, 0, 1, 1, 0) 0.5, 0.5;
  (1, 1, 0, 0, 1, 1, 0) 0.5, 0.5;
  (0, 0, 1, 0, 1, 1, 0) 0.5, 0.5;
  (1, 0, 1, 0, 1, 1, 0) 0.5, 0.5;
  (0, 1, 1, 0, 1, 1, 0) 0.5, 0.5;
  (1, 1, 1, 0, 1, 1, 0) 0.5, 0.5;
  (0, 0, 0, 1, 1, 1, 0) 0.5, 0.5;
  (1, 0, 0, 1, 1, 1, 0) 0.5, 0.5;
  (0, 1, 0, 1, 1, 1, 0) 0.5, 0.5;
  (1, 1, 0, 1, 1, 1, 0) 0.5, 0.5;
  (0, 0, 1, 1, 1, 1, 0) 0.5, 0.5;
  (1, 0, 1, 1, 1, 1, 0) 0.5, 0.5;
  (0, 1, 1, 1, 1, 1, 0) 0.5, 0.5;
  (1, 1, 1, 1, 1, 1, 0) 0.5, 0.5;
  (0, 0, 0, 0, 0, 0, 1) 0.01, 0.99;
  (1, 0, 0, 0, 0, 0, 1) 0.5, 0.5;
  (0, 1, 0, 0, 0, 0, 1) 0.5, 0.5;
  (1, 1, 0, 0, 0, 0, 1) 0.5, 0.5;
  (0, 0, 1, 0, 0, 0, 1) 0.5, 0.5;
  (1, 0, 1, 0, 0, 0, 1) 0.5, 0.5;
  (0, 1, 1, 0, 0, 0, 1) 0.5, 0.5;
  (1, 1, 1, 0, 0, 0, 1) 0.5, 0.5;
  (0, 0, 0, 1, 0, 0, 1) 0.5, 0.5;
  (1, 0, 0, 1, 0, 0, 1) 0.5, 0.5;
  (0, 1, 0, 1, 0, 0, 1) 0.5, 0.5;
  (1, 1, 0, 1, 0, 0, 1) 0.5, 0.5;
  (0, 0, 1, 1, 0, 0, 1) 0.5, 0.5;
  (1, 0, 1, 1, 0, 0, 1) 0.5, 0.5;
  (0, 1, 1, 1, 0, 0, 1) 0.5, 0.5;
  (1, 1, 1, 1, 0, 0, 1) 0.5, 0.5;
  (0, 0, 0, 0, 1, 0, 1) 0.5, 0.5;
  (1, 0, 0, 0, 1, 0, 1) 0.5, 0.5;
  (0, 1, 0, 0, 1, 0, 1) 0.5, 0.5;
  (1, 1, 0, 0, 1, 0, 1) 0.5, 0.5;
  (0, 0, 1, 0, 1, 0, 1) 0.5, 0.5;
  (1, 0, 1, 0, 1, 0, 1) 0.5, 0.5;
  (0, 1, 1, 0, 1, 0, 1) 0.5, 0.5;
  (1, 1, 1, 0, 1, 0, 1) 0.5, 0.5;
  (0, 0, 0, 1, 1, 0, 1) 0.5, 0.5;
  (1, 0, 0, 1, 1, 0, 1) 0.5, 0.5;
  (0, 1, 0, 1, 1, 0, 1) 0.5, 0.5;
  (1, 1, 0, 1, 1, 0, 1) 0.5, 0.5;
  (0, 0, 1, 1, 1, 0, 1) 0.5, 0.5;
  (1, 0, 1, 1, 1, 0, 1) 0.5, 0.5;
  (0, 1, 1, 1, 1, 0, 1) 0.5, 0.5;
  (1, 1, 1, 1, 1, 0, 1) 0.5, 0.5;
  (0, 0, 0, 0, 0, 1, 1) 0.5, 0.5;
  (1, 0, 0, 0, 0, 1, 1) 0.5, 0.5;
  (0, 1, 0, 0, 0, 1, 1) 0.5, 0.5;
  (1, 1, 0, 0, 0, 1, 1) 0.5, 0.5;
  (0, 0, 1, 0, 0, 1, 1) 0.5, 0.5;
  (1, 0, 1, 0, 0, 1, 1) 0.5, 0.5;
  (0, 1, 1, 0, 0, 1, 1) 0.5, 0.5;
  (1, 1, 1, 0, 0, 1, 1) 0.5, 0.5;
  (0, 0, 0, 1, 0, 1, 1) 0.5, 0.5;
  (1, 0, 0, 1, 0, 1, 1) 0.5, 0.5;
  (0, 1, 0, 1, 0, 1, 1) 0.5, 0.5;
  (1, 1, 0, 1, 0, 1, 1) 0.5, 0.5;
  (0, 0, 1, 1, 0, 1, 1) 0.5, 0.5;
  (1, 0, 1, 1, 0, 1, 1) 0.5, 0.5;
  (0, 1, 1, 1, 0, 1, 1) 0.5, 0.5;
  (1, 1, 1, 1, 0, 1, 1) 0.5, 0.5;
  (0, 0, 0, 0, 1, 1, 1) 0.5, 0.5;
  (1, 0, 0, 0, 1, 1, 1) 0.5, 0.5;
  (0, 1, 0, 0, 1, 1, 1) 0.5, 0.5;
  (1, 1, 0, 0, 1, 1, 1) 0.5, 0.5;
  (0, 0, 1, 0, 1, 1, 1) 0.5, 0.5;
  (1, 0, 1, 0, 1, 1, 1) 0.5, 0.5;
  (0, 1, 1, 0, 1, 1, 1) 0.5, 0.5;
  (1, 1, 1, 0, 1, 1, 1) 0.5, 0.5;
  (0, 0, 0, 1, 1, 1, 1) 0.5, 0.5;
  (1, 0, 0, 1, 1, 1, 1) 0.5, 0.5;
  (0, 1, 0, 1, 1, 1, 1) 0.5, 0.5;
  (1, 1, 0, 1, 1, 1, 1) 0.5, 0.5;
  (0, 0, 1, 1, 1, 1, 1) 0.5, 0.5;
  (1, 0, 1, 1, 1, 1, 1) 0.5, 0.5;
  (0, 1, 1, 1, 1, 1, 1) 0.5, 0.5;
  (1, 1, 1, 1, 1, 1, 1) 0.5, 0.5;
}
probability ( v35 | v34 ) {
  (0) 1.0, 0.0;
  (1) 0.0, 1.0;
}
probability ( v36 | v4 ) {
  (0) 1.0, 0.0;
  (1) 0.99000001, 0.00999999;
}
probability ( v37 | v4 ) {
  (0) 0.99000001, 0.00999999;
  (1) 1.0, 0.0;
}
probability ( v38 | v30, v36, v37 ) {
  (0, 0, 0) 0.99900001, 0.00099999;
  (1, 0, 0) 0.25, 0.75;
  (0, 1, 0) 0.00099999, 0.99900001;
  (1, 1, 0) 0.5, 0.5;
  (0, 0, 1) 0.00099999, 0.99900001;
  (1, 0, 1) 0.5, 0.5;
  (0, 1, 1) 0.5, 0.5;
  (1, 1, 1) 0.5, 0.5;
}
probability ( v39 ) {
  table 0.95, 0.05;
}
probability ( v40 ) {
  table 0.98, 0.02;
}
probability ( v41 ) {
  table 0.95, 0.05;
}
probability ( v42 | v30, v39, v40 ) {
  (0, 0, 0) 0.99, 0.01;
  (1, 0, 0) 0.3, 0.7;
  (0, 1, 0) 0.00999999, 0.99000001;
  (1, 1, 0) 0.5, 0.5;
  (0, 0, 1) 0.1, 0.9;
  (1, 0, 1) 0.5, 0.5;
  (0, 1, 1) 0.5, 0.5;
  (1, 1, 1) 0.5, 0.5;
}
probability ( v43 ) {
  table 0.95, 0.05;
}
probability ( v44 ) {
  table 0.99, 0.01;
}
probability ( v45 | v30, v43, v44 ) {
  (0, 0, 0) 0.999, 0.001;
  (1, 0, 0) 0.25, 0.75;
  (0, 1, 0) 0.1, 0.9;
  (1, 1, 0) 0.5, 0.5;
  (0, 0, 1) 0.0, 1.0;
  (1, 0, 1) 0.5, 0.5;
  (0, 1, 1) 0.5, 0.5;
  (1, 1, 1) 0.5, 0.5;
}
probability ( v46 ) {
  table 0.4, 0.6;
}
probability ( v47 | v30, v43, v44 ) {
  (0, 0, 0) 0.999, 0.001;
  (1, 0, 0) 0.25, 0.75;
  (0, 1, 0) 0.1, 0.9;
  (1, 1, 0) 0.5, 0.5;
  (0, 0, 1) 1.0, 0.0;
  (1, 0, 1) 0.5, 0.5;
  (0, 1, 1) 0.5, 0.5;
  (1, 1, 1) 0.5, 0.5;
}
probability ( v48 | v45, v46, v47 ) {
  (0, 0, 0) 0.0, 1.0;
  (1, 0, 0) 0.0, 1.0;
  (0, 1, 0) 0.0, 1.0;
  (1, 1, 0) 1.0, 0.0;
  (0, 0, 1) 1.0, 0.0;
  (1, 0, 1) 1.0, 0.0;
  (0, 1, 1) 0.0, 1.0;
  (1, 1, 1) 1.0, 0.0;
}
probability ( v49 ) {
  table 0.9, 0.1;
}
probability ( v50 ) {
  table 0.98, 0.02;
}
probability ( v51 ) {
  table 0.9, 0.1;
}
probability ( v52 | v30, v50, v51 ) {
  (0, 0, 0) 0.99000001, 0.00999999;
  (1, 0, 0) 0.5, 0.5;
  (0, 1, 0) 0.1, 0.9;
  (1, 1, 0) 0.5, 0.5;
  (0, 0, 1) 0.0, 1.0;
  (1, 0, 1) 0.5, 0.5;
  (0, 1, 1) 0.5, 0.5;
  (1, 1, 1) 0.5, 0.5;
}
probability ( v53 | v30, v41, v50 ) {
  (0, 0, 0) 0.99000001, 0.00999999;
  (1, 0, 0) 0.5, 0.5;
  (0, 1, 0) 0.1, 0.9;
  (1, 1, 0) 0.5, 0.5;
  (0, 0, 1) 0.1, 0.9;
  (1, 0, 1) 0.5, 0.5;
  (0, 1, 1) 0.5, 0.5;
  (1, 1, 1) 0.5, 0.5;
}
probability ( v54 | v49, v52, v53 ) {
  (0, 0, 0) 0.0, 1.0;
  (1, 0, 0) 0.0, 1.0;
  (0, 1, 0) 1.0, 0.0;
  (1, 1, 0) 0.0, 1.0;
  (0, 0, 1) 0.0, 1.0;
  (1, 0, 1) 1.0, 0.0;
  (0, 1, 1) 1.0, 0.0;
  (1, 1, 1) 1.0, 0.0;
}
probability ( v55 | v2, v8, v30, v23 ) {
  (0, 0, 0, 0) 1.0, 0.0;
  (1, 0, 0, 0) 0.2, 0.8;
  (0, 1, 0, 0) 0.4, 0.6;
  (1, 1, 0, 0) 0.5, 0.5;
  (0, 0, 1, 0) 0.2, 0.8;
  (1, 0, 1, 0) 0.5, 0.5;
  (0, 1, 1, 0) 0.5, 0.5;
  (1, 1, 1, 0) 0.5, 0.5;
  (0, 0, 0, 1) 0.1, 0.9;
  (1, 0, 0, 1) 0.5, 0.5;
  (0, 1, 0, 1) 0.5, 0.5;
  (1, 1, 0, 1) 0.5, 0.5;
  (0, 0, 1, 1) 0.5, 0.5;
  (1, 0, 1, 1) 0.5, 0.5;
  (0, 1, 1, 1) 0.5, 0.5;
  (1, 1, 1, 1) 0.5, 0.5;
}
probability ( v56 | v2, v8, v30, v18 ) {
  (0, 0, 0, 0) 1.0, 0.0;
  (1, 0, 0, 0) 0.3, 0.7;
  (0, 1, 0, 0) 0.4, 0.6;
  (1, 1, 0, 0) 0.5, 0.5;
  (0, 0, 1, 0) 0.2, 0.8;
  (1, 0, 1, 0) 0.5, 0.5;
  (0, 1, 1, 0) 0.5, 0.5;
  (1, 1, 1, 0) 0.5, 0.5;
  (0, 0, 0, 1) 0.4, 0.6;
  (1, 0, 0, 1) 0.5, 0.5;
  (0, 1, 0, 1) 0.5, 0.5;
  (1, 1, 0, 1) 0.5, 0.5;
  (0, 0, 1, 1) 0.5, 0.5;
  (1, 0, 1, 1) 0.5, 0.5;
  (0, 1, 1, 1) 0.5, 0.5;
  (1, 1, 1, 1) 0.5, 0.5;
}
probability ( v57 | v7, v55, v56 ) {
  (0, 0, 0) 1.0, 0.0;
  (1, 0, 0) 1.0, 0.0;
  (0, 1, 0) 0.0, 1.0;
  (1, 1, 0) 1.0, 0.0;
  (0, 0, 1) 1.0, 0.0;
  (1, 0, 1) 0.0, 1.0;
  (0, 1, 1) 0.0, 1.0;
  (1, 1, 1) 0.0, 1.0;
}
probability ( v58 | v36 ) {
  (0) 0.99, 0.01;
  (1) 0.1, 0.9;
}
probability ( v59 | v23, v18 ) {
  (0, 0) 1.0, 0.0;
  (1, 0) 0.5, 0.5;
  (0, 1) 0.5, 0.5;
  (1, 1) 0.5, 0.5;
}
probability ( v60 | v46 ) {
  (0) 0.98, 0.02;
  (1) 1.0, 0.0;
}
probability ( v61 | v46, v60 ) {
  (0, 0) 1.0, 0.0;
  (1, 0) 1.0, 0.0;
  (0, 1) 0.05, 0.95;
  (1, 1) 1.0, 0.0;
}
probability ( v62 | v46, v60 ) {
  (0, 0) 0.99900001, 0.00099999;
  (1, 0) 1.0, 0.0;
  (0, 1) 0.00099999, 0.99900001;
  (1, 1) 1.0, 0.0;
}
probability ( v63 | v57, v60 ) {
  (0, 0) 1.0, 0.0;
  (1, 0) 0.0, 1.0;
  (0, 1) 0.1, 0.9;
  (1, 1) 0.5, 0.5;
}
probability ( v64 | v42, v60 ) {
  (0, 0) 1.0, 0.0;
  (1, 0) 0.0, 1.0;
  (0, 1) 0.3, 0.7;
  (1, 1) 0.5, 0.5;
}
probability ( v65 | v16 ) {
  (0) 0.8, 0.2;
  (1) 0.2, 0.8;
}
probability ( v66 | v18, v19 ) {
  (0, 0) 0.9999, 0.0001;
  (1, 0) 0.25, 0.75;
  (0, 1) 0.7, 0.3;
  (1, 1) 0.5, 0.5;
}
probability ( v67 | v57, v46, v63 ) {
  (0, 0, 0) 1.0, 0.0;
  (1, 0, 0) 1.0, 0.0;
  (0, 1, 0) 1.0, 0.0;
  (1, 1, 0) 0.0, 1.0;
  (0, 0, 1) 0.0, 1.0;
  (1, 0, 1) 0.0, 1.0;
  (0, 1, 1) 1.0, 0.0;
  (1, 1, 1) 0.0, 1.0;
}
probability ( v68 | v42, v46, v64 ) {
  (0, 0, 0) 0.0, 1.0;
  (1, 0, 0) 0.0, 1.0;
  (0, 1, 0) 0.0, 1.0;
  (1, 1, 0) 1.0, 0.0;
  (0, 0, 1) 1.0, 0.0;
  (1, 0, 1) 1.0, 0.0;
  (0, 1, 1) 0.0, 1.0;
  (1, 1, 1) 1.0, 0.0;
}
probability ( v69 ) {
  table 0.99, 0.01;
}
probability ( v70 | v38, v18, v69 ) {
  (0, 0, 0) 0.99900001, 0.00099999;
  (1, 0, 0) 0.0, 1.0;
  (0, 1, 0) 0.25, 0.75;
  (1, 1, 0) 0.5, 0.5;
  (0, 0, 1) 0.25, 0.75;
  (1, 0, 1) 0.5, 0.5;
  (0, 1, 1) 0.5, 0.5;
  (1, 1, 1) 0.5, 0.5;
}
probability ( v71 | v7, v38, v70 ) {
  (0, 0, 0) 1.0, 0.0;
  (1, 0, 0) 1.0, 0.0;
  (0, 1, 0) 0.0, 1.0;
  (1, 1, 0) 1.0, 0.0;
  (0, 0, 1) 1.0, 0.0;
  (1, 0, 1) 0.0, 1.0;
  (0, 1, 1) 0.0, 1.0;
  (1, 1, 1) 0.0, 1.0;
}
probability ( v72 | v6 ) {
  (0) 0.99900001, 0.00099999;
  (1) 0.00099999, 0.99900001;
}
probability ( v73 | v33 ) {
  (0) 0.99900001, 0.00099999;
  (1) 0.00099999, 0.99900001;
}
probability ( v74 | v30 ) {
  (0) 0.99900001, 0.00099999;
  (1) 0.2, 0.8;
}
probability ( v75 | v5 ) {
  (0) 0.99000001, 0.00999999;
  (1) 0.00999999, 0.99000001;
}
